digraph Tree {
node [shape=box, style="rounded", color="black", fontname=helvetica] ;
edge [fontname=helvetica] ;
0 [label="bitcoin <= 0.5\nmse = 38933698.2\nsamples = 1607\nvalue = 4036.8"] ;
1 [label="yearn-finance <= 0.5\nmse = 18441480.5\nsamples = 969\nvalue = 1007.1"] ;
0 -> 1 [labeldistance=2.5, labelangle=45, headlabel="True"] ;
2 [label="total_tweets <= 8.5\nmse = 66410.3\nsamples = 935\nvalue = 278.9"] ;
1 -> 2 ;
3 [label="litecoin <= 0.5\nmse = 34383.2\nsamples = 787\nvalue = 217.7"] ;
2 -> 3 ;
4 [label="date <= 736916.5\nmse = 39545.4\nsamples = 503\nvalue = 285.7"] ;
3 -> 4 ;
5 [label="date <= 736671.0\nmse = 78582.6\nsamples = 137\nvalue = 434.6"] ;
4 -> 5 ;
6 [label="date <= 736481.5\nmse = 10875.2\nsamples = 83\nvalue = 260.5"] ;
5 -> 6 ;
7 [label="total_vol <= 250457016.0\nmse = 3945.1\nsamples = 14\nvalue = 84.6"] ;
6 -> 7 ;
8 [label="date <= 736406.0\nmse = 781.2\nsamples = 8\nvalue = 42.2"] ;
7 -> 8 ;
9 [label="mse = 41.3\nsamples = 3\nvalue = 13.8"] ;
8 -> 9 ;
10 [label="mse = 334.8\nsamples = 5\nvalue = 62.2"] ;
8 -> 10 ;
11 [label="total_vol <= 317476672.0\nmse = 121.0\nsamples = 6\nvalue = 164.7"] ;
7 -> 11 ;
12 [label="mse = 0.0\nsamples = 1\nvalue = 190.4"] ;
11 -> 12 ;
13 [label="mse = 42.8\nsamples = 5\nvalue = 161.4"] ;
11 -> 13 ;
14 [label="date <= 736650.5\nmse = 4010.7\nsamples = 69\nvalue = 299.6"] ;
6 -> 14 ;
15 [label="date <= 736547.5\nmse = 1903.2\nsamples = 62\nvalue = 283.9"] ;
14 -> 15 ;
16 [label="mse = 2614.6\nsamples = 21\nvalue = 253.0"] ;
15 -> 16 ;
17 [label="mse = 652.0\nsamples = 41\nvalue = 301.4"] ;
15 -> 17 ;
18 [label="date <= 736655.0\nmse = 1376.6\nsamples = 7\nvalue = 437.1"] ;
14 -> 18 ;
19 [label="mse = 41.2\nsamples = 2\nvalue = 374.9"] ;
18 -> 19 ;
20 [label="mse = 98.5\nsamples = 5\nvalue = 457.9"] ;
18 -> 20 ;
21 [label="date <= 736836.5\nmse = 61453.8\nsamples = 54\nvalue = 711.3"] ;
5 -> 21 ;
22 [label="total_vol <= 2807880960.0\nmse = 41052.9\nsamples = 32\nvalue = 869.2"] ;
21 -> 22 ;
23 [label="date <= 736694.0\nmse = 20839.2\nsamples = 26\nvalue = 810.3"] ;
22 -> 23 ;
24 [label="mse = 6640.8\nsamples = 10\nvalue = 705.8"] ;
23 -> 24 ;
25 [label="mse = 15978.3\nsamples = 16\nvalue = 897.4"] ;
23 -> 25 ;
26 [label="date <= 736724.5\nmse = 40017.4\nsamples = 6\nvalue = 1157.1"] ;
22 -> 26 ;
27 [label="mse = 15928.6\nsamples = 5\nvalue = 1278.4"] ;
26 -> 27 ;
28 [label="mse = 0.0\nsamples = 1\nvalue = 914.6"] ;
26 -> 28 ;
29 [label="date <= 736855.0\nmse = 3802.8\nsamples = 22\nvalue = 485.1"] ;
21 -> 29 ;
30 [label="date <= 736846.0\nmse = 71.9\nsamples = 5\nvalue = 583.8"] ;
29 -> 30 ;
31 [label="mse = 17.0\nsamples = 2\nvalue = 574.6"] ;
30 -> 31 ;
32 [label="mse = 24.2\nsamples = 3\nvalue = 589.3"] ;
30 -> 32 ;
33 [label="date <= 736910.5\nmse = 1403.1\nsamples = 17\nvalue = 457.9"] ;
29 -> 33 ;
34 [label="mse = 256.2\nsamples = 16\nvalue = 467.2"] ;
33 -> 34 ;
35 [label="mse = -0.0\nsamples = 1\nvalue = 332.5"] ;
33 -> 35 ;
36 [label="date <= 737629.5\nmse = 9881.8\nsamples = 366\nvalue = 223.1"] ;
4 -> 36 ;
37 [label="date <= 736941.5\nmse = 2691.7\nsamples = 320\nvalue = 191.0"] ;
36 -> 37 ;
38 [label="total_tweets <= 5.5\nmse = 271.7\nsamples = 12\nvalue = 285.8"] ;
37 -> 38 ;
39 [label="positive <= 0.2\nmse = 183.4\nsamples = 6\nvalue = 301.0"] ;
38 -> 39 ;
40 [label="mse = 150.1\nsamples = 5\nvalue = 295.5"] ;
39 -> 40 ;
41 [label="mse = 0.0\nsamples = 1\nvalue = 314.8"] ;
39 -> 41 ;
42 [label="total_tweets <= 7.5\nmse = 23.6\nsamples = 6\nvalue = 274.1"] ;
38 -> 42 ;
43 [label="mse = 8.2\nsamples = 5\nvalue = 272.6"] ;
42 -> 43 ;
44 [label="mse = -0.0\nsamples = 1\nvalue = 285.5"] ;
42 -> 44 ;
45 [label="date <= 737189.5\nmse = 2453.9\nsamples = 308\nvalue = 187.8"] ;
37 -> 45 ;
46 [label="date <= 737016.0\nmse = 1690.5\nsamples = 115\nvalue = 157.9"] ;
45 -> 46 ;
47 [label="mse = 287.1\nsamples = 36\nvalue = 212.5"] ;
46 -> 47 ;
48 [label="mse = 503.1\nsamples = 79\nvalue = 135.0"] ;
46 -> 48 ;
49 [label="date <= 737253.5\nmse = 2102.6\nsamples = 193\nvalue = 204.5"] ;
45 -> 49 ;
50 [label="mse = 1092.7\nsamples = 30\nvalue = 266.5"] ;
49 -> 50 ;
51 [label="mse = 1391.0\nsamples = 163\nvalue = 192.2"] ;
49 -> 51 ;
52 [label="date <= 737749.5\nmse = 7218.8\nsamples = 46\nvalue = 428.1"] ;
36 -> 52 ;
53 [label="date <= 737733.0\nmse = 1312.1\nsamples = 35\nvalue = 388.1"] ;
52 -> 53 ;
54 [label="date <= 737662.0\nmse = 490.7\nsamples = 31\nvalue = 375.4"] ;
53 -> 54 ;
55 [label="mse = 544.2\nsamples = 6\nvalue = 403.7"] ;
54 -> 55 ;
56 [label="mse = 264.7\nsamples = 25\nvalue = 369.2"] ;
54 -> 56 ;
57 [label="neutral <= 0.9\nmse = 37.3\nsamples = 4\nvalue = 458.4"] ;
53 -> 57 ;
58 [label="mse = 16.9\nsamples = 3\nvalue = 460.1"] ;
57 -> 58 ;
59 [label="mse = 0.0\nsamples = 1\nvalue = 445.1"] ;
57 -> 59 ;
60 [label="date <= 737775.5\nmse = 1314.9\nsamples = 11\nvalue = 575.7"] ;
52 -> 60 ;
61 [label="total_tweets <= 5.5\nmse = 440.4\nsamples = 8\nvalue = 561.0"] ;
60 -> 61 ;
62 [label="mse = 272.8\nsamples = 4\nvalue = 543.2"] ;
61 -> 62 ;
63 [label="mse = 79.7\nsamples = 4\nvalue = 576.2"] ;
61 -> 63 ;
64 [label="total_tweets <= 6.5\nmse = 133.4\nsamples = 3\nvalue = 639.2"] ;
60 -> 64 ;
65 [label="mse = 0.0\nsamples = 1\nvalue = 654.4"] ;
64 -> 65 ;
66 [label="mse = 26.4\nsamples = 2\nvalue = 631.6"] ;
64 -> 66 ;
67 [label="date <= 736854.5\nmse = 3982.6\nsamples = 284\nvalue = 101.0"] ;
3 -> 67 ;
68 [label="date <= 736666.0\nmse = 4633.1\nsamples = 89\nvalue = 157.0"] ;
67 -> 68 ;
69 [label="date <= 736514.5\nmse = 729.3\nsamples = 17\nvalue = 56.2"] ;
68 -> 69 ;
70 [label="neutral <= 0.8\nmse = 143.1\nsamples = 3\nvalue = 13.8"] ;
69 -> 70 ;
71 [label="mse = 0.0\nsamples = 1\nvalue = 30.4"] ;
70 -> 71 ;
72 [label="date <= 736394.5\nmse = 9.6\nsamples = 2\nvalue = 5.6"] ;
70 -> 72 ;
73 [label="mse = -0.0\nsamples = 1\nvalue = 3.8"] ;
72 -> 73 ;
74 [label="mse = 0.0\nsamples = 1\nvalue = 10.9"] ;
72 -> 74 ;
75 [label="date <= 736656.5\nmse = 238.6\nsamples = 14\nvalue = 68.2"] ;
69 -> 75 ;
76 [label="date <= 736581.5\nmse = 146.4\nsamples = 12\nvalue = 64.0"] ;
75 -> 76 ;
77 [label="mse = 74.3\nsamples = 3\nvalue = 79.1"] ;
76 -> 77 ;
78 [label="mse = 82.6\nsamples = 9\nvalue = 59.6"] ;
76 -> 78 ;
79 [label="neutral <= 0.8\nmse = 25.8\nsamples = 2\nvalue = 93.9"] ;
75 -> 79 ;
80 [label="mse = 0.0\nsamples = 1\nvalue = 97.5"] ;
79 -> 80 ;
81 [label="mse = 0.0\nsamples = 1\nvalue = 86.7"] ;
79 -> 81 ;
82 [label="date <= 736709.5\nmse = 2802.8\nsamples = 72\nvalue = 178.8"] ;
68 -> 82 ;
83 [label="negative <= 0.0\nmse = 1297.3\nsamples = 14\nvalue = 260.0"] ;
82 -> 83 ;
84 [label="date <= 736681.0\nmse = 718.3\nsamples = 11\nvalue = 245.2"] ;
83 -> 84 ;
85 [label="mse = 0.0\nsamples = 1\nvalue = 151.3"] ;
84 -> 85 ;
86 [label="mse = 268.1\nsamples = 10\nvalue = 250.1"] ;
84 -> 86 ;
87 [label="neutral <= 0.9\nmse = 41.2\nsamples = 3\nvalue = 309.5"] ;
83 -> 87 ;
88 [label="mse = 4.7\nsamples = 2\nvalue = 313.9"] ;
87 -> 88 ;
89 [label="mse = 0.0\nsamples = 1\nvalue = 300.8"] ;
87 -> 89 ;
90 [label="date <= 736775.5\nmse = 1011.9\nsamples = 58\nvalue = 157.5"] ;
82 -> 90 ;
91 [label="date <= 736738.5\nmse = 559.4\nsamples = 25\nvalue = 183.3"] ;
90 -> 91 ;
92 [label="mse = 336.7\nsamples = 12\nvalue = 168.2"] ;
91 -> 92 ;
93 [label="mse = 394.6\nsamples = 13\nvalue = 195.9"] ;
91 -> 93 ;
94 [label="total_vol <= 305972752.0\nmse = 328.7\nsamples = 33\nvalue = 135.2"] ;
90 -> 94 ;
95 [label="mse = 177.9\nsamples = 19\nvalue = 126.6"] ;
94 -> 95 ;
96 [label="mse = 254.9\nsamples = 14\nvalue = 149.3"] ;
94 -> 96 ;
97 [label="total_vol <= 4038300160.0\nmse = 1338.3\nsamples = 195\nvalue = 73.3"] ;
67 -> 97 ;
98 [label="total_vol <= 2752009472.0\nmse = 307.0\nsamples = 141\nvalue = 54.2"] ;
97 -> 98 ;
99 [label="date <= 736915.5\nmse = 217.4\nsamples = 104\nvalue = 49.9"] ;
98 -> 99 ;
100 [label="negative <= 0.1\nmse = 75.5\nsamples = 11\nvalue = 83.8"] ;
99 -> 100 ;
101 [label="mse = 9.0\nsamples = 9\nvalue = 80.2"] ;
100 -> 101 ;
102 [label="mse = 24.2\nsamples = 2\nvalue = 101.7"] ;
100 -> 102 ;
103 [label="total_vol <= 1647164864.0\nmse = 132.0\nsamples = 93\nvalue = 47.3"] ;
99 -> 103 ;
104 [label="mse = 108.4\nsamples = 55\nvalue = 43.4"] ;
103 -> 104 ;
105 [label="mse = 94.0\nsamples = 38\nvalue = 54.6"] ;
103 -> 105 ;
106 [label="date <= 737338.0\nmse = 348.0\nsamples = 37\nvalue = 67.5"] ;
98 -> 106 ;
107 [label="date <= 737290.5\nmse = 68.5\nsamples = 14\nvalue = 84.7"] ;
106 -> 107 ;
108 [label="mse = 51.0\nsamples = 12\nvalue = 86.6"] ;
107 -> 108 ;
109 [label="mse = 1.4\nsamples = 2\nvalue = 71.8"] ;
107 -> 109 ;
110 [label="date <= 737743.5\nmse = 145.0\nsamples = 23\nvalue = 53.7"] ;
106 -> 110 ;
111 [label="mse = 82.1\nsamples = 21\nvalue = 50.9"] ;
110 -> 111 ;
112 [label="mse = 8.4\nsamples = 2\nvalue = 78.9"] ;
110 -> 112 ;
113 [label="date <= 737784.5\nmse = 696.8\nsamples = 54\nvalue = 121.6"] ;
97 -> 113 ;
114 [label="date <= 737359.0\nmse = 492.5\nsamples = 34\nvalue = 107.0"] ;
113 -> 114 ;
115 [label="date <= 737218.0\nmse = 271.0\nsamples = 19\nvalue = 120.4"] ;
114 -> 115 ;
116 [label="mse = 150.0\nsamples = 8\nvalue = 104.5"] ;
115 -> 116 ;
117 [label="mse = 62.4\nsamples = 11\nvalue = 131.3"] ;
115 -> 117 ;
118 [label="date <= 737769.0\nmse = 175.6\nsamples = 15\nvalue = 87.5"] ;
114 -> 118 ;
119 [label="mse = 65.2\nsamples = 11\nvalue = 80.8"] ;
118 -> 119 ;
120 [label="mse = 23.8\nsamples = 4\nvalue = 105.6"] ;
118 -> 120 ;
121 [label="date <= 737792.5\nmse = 116.6\nsamples = 20\nvalue = 145.4"] ;
113 -> 121 ;
122 [label="total_tweets <= 3.5\nmse = 23.0\nsamples = 3\nvalue = 130.1"] ;
121 -> 122 ;
123 [label="mse = 4.8\nsamples = 2\nvalue = 127.5"] ;
122 -> 123 ;
124 [label="mse = 0.0\nsamples = 1\nvalue = 137.7"] ;
122 -> 124 ;
125 [label="date <= 737799.0\nmse = 92.7\nsamples = 17\nvalue = 147.5"] ;
121 -> 125 ;
126 [label="mse = 19.1\nsamples = 3\nvalue = 161.7"] ;
125 -> 126 ;
127 [label="mse = 66.9\nsamples = 14\nvalue = 145.2"] ;
125 -> 127 ;
128 [label="date <= 737792.5\nmse = 105746.0\nsamples = 148\nvalue = 628.6"] ;
2 -> 128 ;
129 [label="date <= 736855.0\nmse = 47250.1\nsamples = 132\nvalue = 544.1"] ;
128 -> 129 ;
130 [label="total_vol <= 1803042688.0\nmse = 50712.4\nsamples = 76\nvalue = 625.9"] ;
129 -> 130 ;
131 [label="date <= 736635.5\nmse = 27913.2\nsamples = 61\nvalue = 568.3"] ;
130 -> 131 ;
132 [label="date <= 736520.5\nmse = 5927.8\nsamples = 9\nvalue = 290.9"] ;
131 -> 132 ;
133 [label="mse = 0.0\nsamples = 1\nvalue = 148.7"] ;
132 -> 133 ;
134 [label="date <= 736574.5\nmse = 1745.9\nsamples = 8\nvalue = 322.6"] ;
132 -> 134 ;
135 [label="mse = 0.0\nsamples = 1\nvalue = 386.3"] ;
134 -> 135 ;
136 [label="mse = 750.7\nsamples = 7\nvalue = 304.3"] ;
134 -> 136 ;
137 [label="date <= 736766.0\nmse = 18769.0\nsamples = 52\nvalue = 607.0"] ;
131 -> 137 ;
138 [label="negative <= 0.0\nmse = 40460.4\nsamples = 11\nvalue = 751.0"] ;
137 -> 138 ;
139 [label="mse = 21410.7\nsamples = 9\nvalue = 835.9"] ;
138 -> 139 ;
140 [label="mse = 1.3\nsamples = 2\nvalue = 468.2"] ;
138 -> 140 ;
141 [label="date <= 736803.5\nmse = 9602.4\nsamples = 41\nvalue = 578.6"] ;
137 -> 141 ;
142 [label="mse = 4520.2\nsamples = 20\nvalue = 494.9"] ;
141 -> 142 ;
143 [label="mse = 2400.2\nsamples = 21\nvalue = 652.7"] ;
141 -> 143 ;
144 [label="date <= 736729.0\nmse = 68538.3\nsamples = 15\nvalue = 898.8"] ;
130 -> 144 ;
145 [label="date <= 736689.0\nmse = 33066.4\nsamples = 9\nvalue = 1101.8"] ;
144 -> 145 ;
146 [label="mse = 0.0\nsamples = 1\nvalue = 693.1"] ;
145 -> 146 ;
147 [label="total_tweets <= 13.0\nmse = 16116.5\nsamples = 8\nvalue = 1147.2"] ;
145 -> 147 ;
148 [label="mse = 5394.8\nsamples = 7\nvalue = 1109.6"] ;
147 -> 148 ;
149 [label="mse = -0.0\nsamples = 1\nvalue = 1448.2"] ;
147 -> 149 ;
150 [label="total_tweets <= 14.0\nmse = 11269.2\nsamples = 6\nvalue = 673.2"] ;
144 -> 150 ;
151 [label="total_tweets <= 11.0\nmse = 2187.4\nsamples = 3\nvalue = 757.5"] ;
150 -> 151 ;
152 [label="mse = 0.0\nsamples = 1\nvalue = 807.8"] ;
151 -> 152 ;
153 [label="mse = 831.1\nsamples = 2\nvalue = 723.9"] ;
151 -> 153 ;
154 [label="positive <= 0.1\nmse = 2647.8\nsamples = 3\nvalue = 567.9"] ;
150 -> 154 ;
155 [label="mse = 0.0\nsamples = 1\nvalue = 613.7"] ;
154 -> 155 ;
156 [label="mse = 1091.8\nsamples = 2\nvalue = 522.0"] ;
154 -> 156 ;
157 [label="date <= 737748.5\nmse = 23606.8\nsamples = 56\nvalue = 440.3"] ;
129 -> 157 ;
158 [label="date <= 736911.0\nmse = 11178.0\nsamples = 42\nvalue = 365.9"] ;
157 -> 158 ;
159 [label="date <= 736866.5\nmse = 2120.2\nsamples = 10\nvalue = 474.2"] ;
158 -> 159 ;
160 [label="positive <= 0.1\nmse = 134.7\nsamples = 5\nvalue = 520.5"] ;
159 -> 160 ;
161 [label="mse = 0.0\nsamples = 1\nvalue = 495.1"] ;
160 -> 161 ;
162 [label="mse = 31.7\nsamples = 4\nvalue = 524.7"] ;
160 -> 162 ;
163 [label="date <= 736870.0\nmse = 337.7\nsamples = 5\nvalue = 433.6"] ;
159 -> 163 ;
164 [label="mse = 0.0\nsamples = 1\nvalue = 463.9"] ;
163 -> 164 ;
165 [label="mse = 41.8\nsamples = 4\nvalue = 423.5"] ;
163 -> 165 ;
166 [label="date <= 737635.0\nmse = 9137.4\nsamples = 32\nvalue = 331.4"] ;
158 -> 166 ;
167 [label="negative <= 0.0\nmse = 5408.0\nsamples = 15\nvalue = 247.9"] ;
166 -> 167 ;
168 [label="mse = 1055.5\nsamples = 3\nvalue = 316.5"] ;
167 -> 168 ;
169 [label="mse = 4211.5\nsamples = 12\nvalue = 215.8"] ;
167 -> 169 ;
170 [label="date <= 737736.0\nmse = 882.1\nsamples = 17\nvalue = 404.9"] ;
166 -> 170 ;
171 [label="mse = 589.7\nsamples = 15\nvalue = 399.4"] ;
170 -> 171 ;
172 [label="mse = 16.6\nsamples = 2\nvalue = 467.2"] ;
170 -> 172 ;
173 [label="date <= 737783.5\nmse = 4456.6\nsamples = 14\nvalue = 632.6"] ;
157 -> 173 ;
174 [label="date <= 737751.0\nmse = 986.1\nsamples = 10\nvalue = 601.7"] ;
173 -> 174 ;
175 [label="total_vol <= 13263871488.0\nmse = 401.0\nsamples = 2\nvalue = 528.8"] ;
174 -> 175 ;
176 [label="mse = 0.0\nsamples = 1\nvalue = 508.8"] ;
175 -> 176 ;
177 [label="mse = 0.0\nsamples = 1\nvalue = 548.8"] ;
175 -> 177 ;
178 [label="date <= 737770.0\nmse = 356.2\nsamples = 8\nvalue = 610.3"] ;
174 -> 178 ;
179 [label="mse = 160.8\nsamples = 6\nvalue = 603.4"] ;
178 -> 179 ;
180 [label="mse = 4.6\nsamples = 2\nvalue = 642.5"] ;
178 -> 180 ;
181 [label="total_tweets <= 10.5\nmse = 277.0\nsamples = 4\nvalue = 749.8"] ;
173 -> 181 ;
182 [label="mse = 0.0\nsamples = 1\nvalue = 777.7"] ;
181 -> 182 ;
183 [label="neutral <= 0.9\nmse = 103.6\nsamples = 3\nvalue = 742.9"] ;
181 -> 183 ;
184 [label="mse = 7.4\nsamples = 2\nvalue = 732.9"] ;
183 -> 184 ;
185 [label="mse = -0.0\nsamples = 1\nvalue = 752.9"] ;
183 -> 185 ;
186 [label="date <= 737822.5\nmse = 27305.4\nsamples = 16\nvalue = 1345.4"] ;
128 -> 186 ;
187 [label="total_vol <= 22583358464.0\nmse = 9639.7\nsamples = 13\nvalue = 1283.3"] ;
186 -> 187 ;
188 [label="mse = 0.0\nsamples = 1\nvalue = 967.0"] ;
187 -> 188 ;
189 [label="negative <= 0.0\nmse = 4306.8\nsamples = 12\nvalue = 1300.9"] ;
187 -> 189 ;
190 [label="positive <= 0.1\nmse = 2443.0\nsamples = 6\nvalue = 1350.2"] ;
189 -> 190 ;
191 [label="mse = 0.0\nsamples = 1\nvalue = 1223.7"] ;
190 -> 191 ;
192 [label="neutral <= 0.9\nmse = 499.4\nsamples = 5\nvalue = 1366.0"] ;
190 -> 192 ;
193 [label="mse = 397.8\nsamples = 2\nvalue = 1348.7"] ;
192 -> 193 ;
194 [label="mse = 3.9\nsamples = 3\nvalue = 1383.3"] ;
192 -> 194 ;
195 [label="negative <= 0.1\nmse = 1314.8\nsamples = 6\nvalue = 1251.6"] ;
189 -> 195 ;
196 [label="date <= 737807.5\nmse = 119.0\nsamples = 5\nvalue = 1233.0"] ;
195 -> 196 ;
197 [label="mse = 34.5\nsamples = 2\nvalue = 1225.2"] ;
196 -> 197 ;
198 [label="mse = 103.9\nsamples = 3\nvalue = 1238.8"] ;
196 -> 198 ;
199 [label="mse = -0.0\nsamples = 1\nvalue = 1317.0"] ;
195 -> 199 ;
200 [label="total_vol <= 35606267904.0\nmse = 5975.4\nsamples = 3\nvalue = 1640.3"] ;
186 -> 200 ;
201 [label="mse = 0.0\nsamples = 1\nvalue = 1514.2"] ;
200 -> 201 ;
202 [label="total_vol <= 42810447872.0\nmse = 906.1\nsamples = 2\nvalue = 1682.3"] ;
200 -> 202 ;
203 [label="mse = 0.0\nsamples = 1\nvalue = 1724.9"] ;
202 -> 203 ;
204 [label="mse = 0.0\nsamples = 1\nvalue = 1661.0"] ;
202 -> 204 ;
205 [label="total_vol <= 206453960.0\nmse = 93777844.7\nsamples = 34\nvalue = 21909.6"] ;
1 -> 205 ;
206 [label="negative <= 0.0\nmse = 25637844.1\nsamples = 4\nvalue = 5687.9"] ;
205 -> 206 ;
207 [label="total_vol <= 113895904.0\nmse = 4095917.1\nsamples = 3\nvalue = 4029.7"] ;
206 -> 207 ;
208 [label="date <= 737630.5\nmse = 7394.1\nsamples = 2\nvalue = 3265.4"] ;
207 -> 208 ;
209 [label="mse = 0.0\nsamples = 1\nvalue = 3211.0"] ;
208 -> 209 ;
210 [label="mse = 0.0\nsamples = 1\nvalue = 3401.4"] ;
208 -> 210 ;
211 [label="mse = -0.0\nsamples = 1\nvalue = 9380.1"] ;
207 -> 211 ;
212 [label="mse = 0.0\nsamples = 1\nvalue = 18953.5"] ;
206 -> 212 ;
213 [label="date <= 737794.5\nmse = 39908658.1\nsamples = 30\nvalue = 25385.7"] ;
205 -> 213 ;
214 [label="date <= 737698.0\nmse = 35095825.6\nsamples = 25\nvalue = 24135.0"] ;
213 -> 214 ;
215 [label="total_vol <= 549145632.0\nmse = 13412216.8\nsamples = 8\nvalue = 30757.5"] ;
214 -> 215 ;
216 [label="neutral <= 0.9\nmse = 7440469.1\nsamples = 3\nvalue = 25880.6"] ;
215 -> 216 ;
217 [label="positive <= 0.2\nmse = 568001.2\nsamples = 2\nvalue = 27759.7"] ;
216 -> 217 ;
218 [label="mse = 0.0\nsamples = 1\nvalue = 28513.4"] ;
217 -> 218 ;
219 [label="mse = 0.0\nsamples = 1\nvalue = 27006.0"] ;
217 -> 219 ;
220 [label="mse = -0.0\nsamples = 1\nvalue = 22122.5"] ;
216 -> 220 ;
221 [label="date <= 737668.5\nmse = 1410071.5\nsamples = 5\nvalue = 32847.6"] ;
215 -> 221 ;
222 [label="mse = 0.0\nsamples = 1\nvalue = 35059.7"] ;
221 -> 222 ;
223 [label="date <= 737686.5\nmse = 693585.5\nsamples = 4\nvalue = 32478.9"] ;
221 -> 223 ;
224 [label="date <= 737677.0\nmse = 190065.0\nsamples = 3\nvalue = 32806.1"] ;
223 -> 224 ;
225 [label="mse = 0.0\nsamples = 1\nvalue = 31934.2"] ;
224 -> 225 ;
226 [label="mse = 35.7\nsamples = 2\nvalue = 33024.0"] ;
224 -> 226 ;
227 [label="mse = -0.0\nsamples = 1\nvalue = 30843.0"] ;
223 -> 227 ;
228 [label="date <= 737745.0\nmse = 20079419.8\nsamples = 17\nvalue = 21587.8"] ;
214 -> 228 ;
229 [label="date <= 737703.5\nmse = 5667118.9\nsamples = 6\nvalue = 17450.7"] ;
228 -> 229 ;
230 [label="date <= 737700.5\nmse = 942559.5\nsamples = 3\nvalue = 19720.2"] ;
229 -> 230 ;
231 [label="mse = 0.0\nsamples = 1\nvalue = 21086.9"] ;
230 -> 231 ;
232 [label="negative <= 0.1\nmse = 12753.9\nsamples = 2\nvalue = 19036.8"] ;
230 -> 232 ;
233 [label="mse = 0.0\nsamples = 1\nvalue = 19149.7"] ;
232 -> 233 ;
234 [label="mse = -0.0\nsamples = 1\nvalue = 18923.8"] ;
232 -> 234 ;
235 [label="positive <= 0.1\nmse = 90370.2\nsamples = 3\nvalue = 15181.1"] ;
229 -> 235 ;
236 [label="mse = 0.0\nsamples = 1\nvalue = 14779.6"] ;
235 -> 236 ;
237 [label="neutral <= 0.8\nmse = 14644.7\nsamples = 2\nvalue = 15381.9"] ;
235 -> 237 ;
238 [label="mse = 0.0\nsamples = 1\nvalue = 15451.8"] ;
237 -> 238 ;
239 [label="mse = -0.0\nsamples = 1\nvalue = 15172.3"] ;
237 -> 239 ;
240 [label="date <= 737778.5\nmse = 5186438.0\nsamples = 11\nvalue = 25134.0"] ;
228 -> 240 ;
241 [label="positive <= 0.2\nmse = 4022352.1\nsamples = 8\nvalue = 25871.9"] ;
240 -> 241 ;
242 [label="total_tweets <= 1.5\nmse = 2018617.4\nsamples = 7\nvalue = 25404.2"] ;
241 -> 242 ;
243 [label="mse = 1018234.3\nsamples = 6\nvalue = 25754.1"] ;
242 -> 243 ;
244 [label="mse = -0.0\nsamples = 1\nvalue = 22254.6"] ;
242 -> 244 ;
245 [label="mse = 0.0\nsamples = 1\nvalue = 30548.7"] ;
241 -> 245 ;
246 [label="date <= 737788.5\nmse = 138938.4\nsamples = 3\nvalue = 22428.5"] ;
240 -> 246 ;
247 [label="neutral <= 0.7\nmse = 15149.5\nsamples = 2\nvalue = 22682.3"] ;
246 -> 247 ;
248 [label="mse = 0.0\nsamples = 1\nvalue = 22805.4"] ;
247 -> 248 ;
249 [label="mse = 0.0\nsamples = 1\nvalue = 22559.3"] ;
247 -> 249 ;
250 [label="mse = 0.0\nsamples = 1\nvalue = 21920.9"] ;
246 -> 250 ;
251 [label="positive <= 0.1\nmse = 3088619.3\nsamples = 5\nvalue = 32889.8"] ;
213 -> 251 ;
252 [label="date <= 737800.5\nmse = 1980039.1\nsamples = 4\nvalue = 33426.2"] ;
251 -> 252 ;
253 [label="mse = 0.0\nsamples = 1\nvalue = 35023.4"] ;
252 -> 253 ;
254 [label="positive <= 0.0\nmse = 1677802.4\nsamples = 3\nvalue = 33026.8"] ;
252 -> 254 ;
255 [label="mse = 0.0\nsamples = 1\nvalue = 30832.5"] ;
254 -> 255 ;
256 [label="total_tweets <= 1.5\nmse = 96924.3\nsamples = 2\nvalue = 33758.3"] ;
254 -> 256 ;
257 [label="mse = 0.0\nsamples = 1\nvalue = 33978.5"] ;
256 -> 257 ;
258 [label="mse = 0.0\nsamples = 1\nvalue = 33318.0"] ;
256 -> 258 ;
259 [label="mse = 0.0\nsamples = 1\nvalue = 30207.8"] ;
251 -> 259 ;
260 [label="date <= 737775.5\nmse = 34877498.7\nsamples = 638\nvalue = 8650.0"] ;
0 -> 260 [labeldistance=2.5, labelangle=-45, headlabel="False"] ;
261 [label="total_tweets <= 10.5\nmse = 12611094.6\nsamples = 615\nvalue = 7714.8"] ;
260 -> 261 ;
262 [label="date <= 736554.0\nmse = 6012375.2\nsamples = 185\nvalue = 4547.6"] ;
261 -> 262 ;
263 [label="date <= 736467.0\nmse = 1005820.5\nsamples = 52\nvalue = 1980.6"] ;
262 -> 263 ;
264 [label="date <= 736277.0\nmse = 261120.7\nsamples = 23\nvalue = 937.3"] ;
263 -> 264 ;
265 [label="date <= 735940.0\nmse = 10519.7\nsamples = 8\nvalue = 303.7"] ;
264 -> 265 ;
266 [label="total_tweets <= 2.5\nmse = 838.4\nsamples = 5\nvalue = 252.9"] ;
265 -> 266 ;
267 [label="date <= 735617.0\nmse = 286.8\nsamples = 4\nvalue = 244.9"] ;
266 -> 267 ;
268 [label="mse = -0.0\nsamples = 1\nvalue = 221.4"] ;
267 -> 268 ;
269 [label="mse = 18.7\nsamples = 3\nvalue = 256.6"] ;
267 -> 269 ;
270 [label="mse = -0.0\nsamples = 1\nvalue = 325.2"] ;
266 -> 270 ;
271 [label="total_vol <= 756553584.0\nmse = 5536.0\nsamples = 3\nvalue = 473.0"] ;
265 -> 271 ;
272 [label="mse = 0.0\nsamples = 1\nvalue = 578.1"] ;
271 -> 272 ;
273 [label="neutral <= 0.7\nmse = 12.5\nsamples = 2\nvalue = 420.4"] ;
271 -> 273 ;
274 [label="mse = 0.0\nsamples = 1\nvalue = 416.8"] ;
273 -> 274 ;
275 [label="mse = -0.0\nsamples = 1\nvalue = 423.9"] ;
273 -> 275 ;
276 [label="date <= 736449.5\nmse = 47617.5\nsamples = 15\nvalue = 1295.4"] ;
264 -> 276 ;
277 [label="total_vol <= 207696304.0\nmse = 16104.1\nsamples = 12\nvalue = 1188.4"] ;
276 -> 277 ;
278 [label="total_vol <= 82714228.0\nmse = 8246.4\nsamples = 9\nvalue = 1226.2"] ;
277 -> 278 ;
279 [label="mse = 0.0\nsamples = 1\nvalue = 940.0"] ;
278 -> 279 ;
280 [label="mse = 2095.9\nsamples = 8\nvalue = 1248.2"] ;
278 -> 280 ;
281 [label="negative <= 0.1\nmse = 15060.7\nsamples = 3\nvalue = 1012.2"] ;
277 -> 281 ;
282 [label="mse = 1172.7\nsamples = 2\nvalue = 927.7"] ;
281 -> 282 ;
283 [label="mse = 0.0\nsamples = 1\nvalue = 1181.2"] ;
281 -> 283 ;
284 [label="total_vol <= 210100168.0\nmse = 12698.5\nsamples = 3\nvalue = 1598.4"] ;
276 -> 284 ;
285 [label="mse = 0.0\nsamples = 1\nvalue = 1485.8"] ;
284 -> 285 ;
286 [label="neutral <= 0.9\nmse = 57.9\nsamples = 2\nvalue = 1710.9"] ;
284 -> 286 ;
287 [label="mse = 0.0\nsamples = 1\nvalue = 1700.2"] ;
286 -> 287 ;
288 [label="mse = 0.0\nsamples = 1\nvalue = 1716.3"] ;
286 -> 288 ;
289 [label="date <= 736544.5\nmse = 103669.0\nsamples = 29\nvalue = 2779.8"] ;
263 -> 289 ;
290 [label="date <= 736480.0\nmse = 29287.0\nsamples = 24\nvalue = 2645.1"] ;
289 -> 290 ;
291 [label="neutral <= 0.9\nmse = 19904.4\nsamples = 3\nvalue = 2259.0"] ;
290 -> 291 ;
292 [label="positive <= 0.1\nmse = 3030.0\nsamples = 2\nvalue = 2164.4"] ;
291 -> 292 ;
293 [label="mse = 0.0\nsamples = 1\nvalue = 2219.5"] ;
292 -> 293 ;
294 [label="mse = 0.0\nsamples = 1\nvalue = 2109.4"] ;
292 -> 294 ;
295 [label="mse = -0.0\nsamples = 1\nvalue = 2448.1"] ;
291 -> 295 ;
296 [label="total_vol <= 235676160.0\nmse = 16220.1\nsamples = 21\nvalue = 2678.2"] ;
290 -> 296 ;
297 [label="positive <= 0.0\nmse = 14751.4\nsamples = 2\nvalue = 2439.1"] ;
296 -> 297 ;
298 [label="mse = 0.0\nsamples = 1\nvalue = 2228.7"] ;
297 -> 298 ;
299 [label="mse = -0.0\nsamples = 1\nvalue = 2509.2"] ;
297 -> 299 ;
300 [label="date <= 736536.0\nmse = 8082.9\nsamples = 19\nvalue = 2709.0"] ;
296 -> 300 ;
301 [label="mse = 6414.6\nsamples = 14\nvalue = 2679.7"] ;
300 -> 301 ;
302 [label="mse = 3311.3\nsamples = 5\nvalue = 2793.3"] ;
300 -> 302 ;
303 [label="date <= 736550.5\nmse = 17318.9\nsamples = 5\nvalue = 3348.8"] ;
289 -> 303 ;
304 [label="date <= 736547.5\nmse = 5479.5\nsamples = 4\nvalue = 3287.7"] ;
303 -> 304 ;
305 [label="neutral <= 0.9\nmse = 498.0\nsamples = 2\nvalue = 3205.5"] ;
304 -> 305 ;
306 [label="mse = 0.0\nsamples = 1\nvalue = 3189.7"] ;
305 -> 306 ;
307 [label="mse = 0.0\nsamples = 1\nvalue = 3237.1"] ;
305 -> 307 ;
308 [label="total_vol <= 720971296.0\nmse = 342.4\nsamples = 2\nvalue = 3349.4"] ;
304 -> 308 ;
309 [label="mse = 0.0\nsamples = 1\nvalue = 3367.9"] ;
308 -> 309 ;
310 [label="mse = 0.0\nsamples = 1\nvalue = 3330.9"] ;
308 -> 310 ;
311 [label="mse = 0.0\nsamples = 1\nvalue = 3562.6"] ;
303 -> 311 ;
312 [label="date <= 737196.5\nmse = 4249729.3\nsamples = 133\nvalue = 5602.3"] ;
262 -> 312 ;
313 [label="date <= 737015.0\nmse = 2425428.2\nsamples = 105\nvalue = 4958.2"] ;
312 -> 313 ;
314 [label="date <= 736611.5\nmse = 2620350.6\nsamples = 58\nvalue = 5732.6"] ;
313 -> 314 ;
315 [label="negative <= 0.0\nmse = 130488.3\nsamples = 23\nvalue = 4090.2"] ;
314 -> 315 ;
316 [label="positive <= 0.2\nmse = 40963.3\nsamples = 17\nvalue = 4256.1"] ;
315 -> 316 ;
317 [label="mse = 27159.2\nsamples = 15\nvalue = 4222.6"] ;
316 -> 317 ;
318 [label="mse = 72269.3\nsamples = 2\nvalue = 4512.8"] ;
316 -> 318 ;
319 [label="neutral <= 0.9\nmse = 123347.4\nsamples = 6\nvalue = 3698.2"] ;
315 -> 319 ;
320 [label="mse = 53798.5\nsamples = 5\nvalue = 3830.9"] ;
319 -> 320 ;
321 [label="mse = -0.0\nsamples = 1\nvalue = 3100.7"] ;
319 -> 321 ;
322 [label="positive <= 0.1\nmse = 1305534.2\nsamples = 35\nvalue = 6817.8"] ;
314 -> 322 ;
323 [label="positive <= 0.0\nmse = 5092342.1\nsamples = 2\nvalue = 8841.5"] ;
322 -> 323 ;
324 [label="mse = 0.0\nsamples = 1\nvalue = 6584.8"] ;
323 -> 324 ;
325 [label="mse = -0.0\nsamples = 1\nvalue = 11098.1"] ;
323 -> 325 ;
326 [label="date <= 736633.5\nmse = 674998.1\nsamples = 33\nvalue = 6662.1"] ;
322 -> 326 ;
327 [label="mse = 17180.9\nsamples = 6\nvalue = 5807.5"] ;
326 -> 327 ;
328 [label="mse = 637636.8\nsamples = 27\nvalue = 6817.5"] ;
326 -> 328 ;
329 [label="date <= 737150.5\nmse = 479266.4\nsamples = 47\nvalue = 3984.8"] ;
313 -> 329 ;
330 [label="date <= 737110.5\nmse = 59304.8\nsamples = 37\nvalue = 3670.6"] ;
329 -> 330 ;
331 [label="date <= 737029.0\nmse = 45403.8\nsamples = 23\nvalue = 3554.5"] ;
330 -> 331 ;
332 [label="mse = 0.0\nsamples = 1\nvalue = 4307.4"] ;
331 -> 332 ;
333 [label="mse = 31288.4\nsamples = 22\nvalue = 3534.7"] ;
331 -> 333 ;
334 [label="date <= 737125.5\nmse = 13578.8\nsamples = 14\nvalue = 3886.2"] ;
330 -> 334 ;
335 [label="mse = 3436.5\nsamples = 5\nvalue = 3774.2"] ;
334 -> 335 ;
336 [label="mse = 4709.3\nsamples = 9\nvalue = 3970.3"] ;
334 -> 336 ;
337 [label="date <= 737167.0\nmse = 42289.2\nsamples = 10\nvalue = 5331.5"] ;
329 -> 337 ;
338 [label="date <= 737165.0\nmse = 18043.5\nsamples = 3\nvalue = 5094.2"] ;
337 -> 338 ;
339 [label="mse = 4960.3\nsamples = 2\nvalue = 4969.5"] ;
338 -> 339 ;
340 [label="mse = 0.0\nsamples = 1\nvalue = 5219.0"] ;
338 -> 340 ;
341 [label="total_vol <= 19819156480.0\nmse = 20443.6\nsamples = 7\nvalue = 5426.5"] ;
337 -> 341 ;
342 [label="mse = 5124.6\nsamples = 6\nvalue = 5384.5"] ;
341 -> 342 ;
343 [label="mse = -0.0\nsamples = 1\nvalue = 5803.9"] ;
341 -> 343 ;
344 [label="positive <= 0.1\nmse = 1529158.7\nsamples = 28\nvalue = 8675.6"] ;
312 -> 344 ;
345 [label="negative <= 0.0\nmse = 255854.0\nsamples = 4\nvalue = 7425.5"] ;
344 -> 345 ;
346 [label="mse = 0.0\nsamples = 1\nvalue = 8173.6"] ;
345 -> 346 ;
347 [label="negative <= 0.1\nmse = 44766.7\nsamples = 3\nvalue = 7126.3"] ;
345 -> 347 ;
348 [label="mse = 0.0\nsamples = 1\nvalue = 6878.8"] ;
347 -> 348 ;
349 [label="positive <= 0.0\nmse = 6563.4\nsamples = 2\nvalue = 7291.2"] ;
347 -> 349 ;
350 [label="mse = 0.0\nsamples = 1\nvalue = 7234.0"] ;
349 -> 350 ;
351 [label="mse = 0.0\nsamples = 1\nvalue = 7405.8"] ;
349 -> 351 ;
352 [label="date <= 737320.5\nmse = 1359108.7\nsamples = 24\nvalue = 8988.2"] ;
344 -> 352 ;
353 [label="date <= 737232.0\nmse = 1187358.1\nsamples = 7\nvalue = 9886.5"] ;
352 -> 353 ;
354 [label="total_tweets <= 5.5\nmse = 205942.0\nsamples = 2\nvalue = 8121.8"] ;
353 -> 354 ;
355 [label="mse = 0.0\nsamples = 1\nvalue = 7668.0"] ;
354 -> 355 ;
356 [label="mse = 0.0\nsamples = 1\nvalue = 8575.6"] ;
354 -> 356 ;
357 [label="negative <= 0.1\nmse = 323886.1\nsamples = 5\nvalue = 10390.6"] ;
353 -> 357 ;
358 [label="mse = 47449.7\nsamples = 3\nvalue = 10838.0"] ;
357 -> 358 ;
359 [label="mse = 69838.3\nsamples = 2\nvalue = 9794.2"] ;
357 -> 359 ;
360 [label="date <= 737461.0\nmse = 877167.1\nsamples = 17\nvalue = 8562.6"] ;
352 -> 360 ;
361 [label="date <= 737382.0\nmse = 399385.3\nsamples = 11\nvalue = 7918.8"] ;
360 -> 361 ;
362 [label="mse = 189663.3\nsamples = 4\nvalue = 8453.6"] ;
361 -> 362 ;
363 [label="mse = 262410.2\nsamples = 7\nvalue = 7613.2"] ;
361 -> 363 ;
364 [label="date <= 737649.5\nmse = 180382.1\nsamples = 6\nvalue = 9447.9"] ;
360 -> 364 ;
365 [label="mse = 79451.4\nsamples = 5\nvalue = 9322.1"] ;
364 -> 365 ;
366 [label="mse = 0.0\nsamples = 1\nvalue = 10328.9"] ;
364 -> 366 ;
367 [label="date <= 737718.5\nmse = 9351036.9\nsamples = 430\nvalue = 9058.0"] ;
261 -> 367 ;
368 [label="date <= 737631.5\nmse = 6180731.1\nsamples = 405\nvalue = 8605.1"] ;
367 -> 368 ;
369 [label="date <= 736765.0\nmse = 6048233.5\nsamples = 363\nvalue = 8315.7"] ;
368 -> 369 ;
370 [label="date <= 736658.0\nmse = 16702837.4\nsamples = 60\nvalue = 10514.7"] ;
369 -> 370 ;
371 [label="date <= 736631.0\nmse = 2844611.1\nsamples = 18\nvalue = 5846.1"] ;
370 -> 371 ;
372 [label="date <= 736601.0\nmse = 665728.2\nsamples = 11\nvalue = 4659.1"] ;
371 -> 372 ;
373 [label="mse = 154845.8\nsamples = 7\nvalue = 4102.3"] ;
372 -> 373 ;
374 [label="mse = 22516.0\nsamples = 4\nvalue = 5661.5"] ;
372 -> 374 ;
375 [label="total_tweets <= 11.5\nmse = 633564.7\nsamples = 7\nvalue = 7692.4"] ;
371 -> 375 ;
376 [label="mse = 0.0\nsamples = 1\nvalue = 5866.5"] ;
375 -> 376 ;
377 [label="mse = 243938.2\nsamples = 6\nvalue = 7920.6"] ;
375 -> 377 ;
378 [label="date <= 736708.5\nmse = 10457100.5\nsamples = 42\nvalue = 12304.4"] ;
370 -> 378 ;
379 [label="date <= 736666.5\nmse = 8399834.8\nsamples = 18\nvalue = 14906.1"] ;
378 -> 379 ;
380 [label="mse = 348006.9\nsamples = 4\nvalue = 10455.8"] ;
379 -> 380 ;
381 [label="mse = 3721408.5\nsamples = 14\nvalue = 16119.8"] ;
379 -> 381 ;
382 [label="date <= 736721.0\nmse = 1151999.6\nsamples = 24\nvalue = 10027.9"] ;
378 -> 382 ;
383 [label="mse = 167493.8\nsamples = 4\nvalue = 11394.8"] ;
382 -> 383 ;
384 [label="mse = 924224.5\nsamples = 20\nvalue = 9774.7"] ;
382 -> 384 ;
385 [label="date <= 737192.5\nmse = 3249642.3\nsamples = 303\nvalue = 7938.6"] ;
369 -> 385 ;
386 [label="date <= 737001.5\nmse = 2709545.3\nsamples = 132\nvalue = 6612.8"] ;
385 -> 386 ;
387 [label="date <= 736855.5\nmse = 995355.6\nsamples = 93\nvalue = 7402.2"] ;
386 -> 387 ;
388 [label="mse = 766629.9\nsamples = 45\nvalue = 8071.2"] ;
387 -> 388 ;
389 [label="mse = 195980.5\nsamples = 48\nvalue = 6656.9"] ;
387 -> 389 ;
390 [label="total_vol <= 14394352128.0\nmse = 1132767.4\nsamples = 39\nvalue = 4488.5"] ;
386 -> 390 ;
391 [label="mse = 324928.0\nsamples = 27\nvalue = 3982.5"] ;
390 -> 391 ;
392 [label="mse = 782911.1\nsamples = 12\nvalue = 5838.1"] ;
390 -> 392 ;
393 [label="date <= 737326.5\nmse = 1452735.4\nsamples = 171\nvalue = 8896.4"] ;
385 -> 393 ;
394 [label="date <= 737229.5\nmse = 1245770.2\nsamples = 49\nvalue = 9748.5"] ;
393 -> 394 ;
395 [label="mse = 265799.7\nsamples = 15\nvalue = 8348.6"] ;
394 -> 395 ;
396 [label="mse = 386980.1\nsamples = 34\nvalue = 10389.1"] ;
394 -> 396 ;
397 [label="date <= 737545.5\nmse = 1082562.8\nsamples = 122\nvalue = 8520.6"] ;
393 -> 397 ;
398 [label="mse = 1069834.3\nsamples = 84\nvalue = 8165.8"] ;
397 -> 398 ;
399 [label="mse = 71232.2\nsamples = 38\nvalue = 9379.3"] ;
397 -> 399 ;
400 [label="date <= 737671.5\nmse = 233230.0\nsamples = 42\nvalue = 11129.5"] ;
368 -> 400 ;
401 [label="positive <= 0.1\nmse = 78414.0\nsamples = 18\nvalue = 11508.2"] ;
400 -> 401 ;
402 [label="date <= 737636.5\nmse = 55872.3\nsamples = 12\nvalue = 11376.2"] ;
401 -> 402 ;
403 [label="total_tweets <= 27.0\nmse = 8378.6\nsamples = 2\nvalue = 11063.5"] ;
402 -> 403 ;
404 [label="mse = -0.0\nsamples = 1\nvalue = 11116.3"] ;
403 -> 404 ;
405 [label="mse = -0.0\nsamples = 1\nvalue = 10904.9"] ;
403 -> 405 ;
406 [label="negative <= 0.0\nmse = 35498.2\nsamples = 10\nvalue = 11459.6"] ;
402 -> 406 ;
407 [label="mse = 16621.9\nsamples = 5\nvalue = 11636.8"] ;
406 -> 407 ;
408 [label="mse = 21399.5\nsamples = 5\nvalue = 11371.0"] ;
406 -> 408 ;
409 [label="total_tweets <= 15.5\nmse = 11558.8\nsamples = 6\nvalue = 11786.9"] ;
401 -> 409 ;
410 [label="date <= 737659.5\nmse = 180.0\nsamples = 2\nvalue = 11666.9"] ;
409 -> 410 ;
411 [label="mse = 0.0\nsamples = 1\nvalue = 11676.4"] ;
410 -> 411 ;
412 [label="mse = 0.0\nsamples = 1\nvalue = 11647.9"] ;
410 -> 412 ;
413 [label="date <= 737646.0\nmse = 6451.0\nsamples = 4\nvalue = 11846.9"] ;
409 -> 413 ;
414 [label="mse = 0.0\nsamples = 1\nvalue = 11739.1"] ;
413 -> 414 ;
415 [label="mse = 969.5\nsamples = 3\nvalue = 11900.7"] ;
413 -> 415 ;
416 [label="date <= 737707.0\nmse = 159733.3\nsamples = 24\nvalue = 10842.9"] ;
400 -> 416 ;
417 [label="total_vol <= 25181118464.0\nmse = 54412.9\nsamples = 17\nvalue = 10650.9"] ;
416 -> 417 ;
418 [label="neutral <= 0.8\nmse = 40841.6\nsamples = 15\nvalue = 10686.2"] ;
417 -> 418 ;
419 [label="mse = 10342.9\nsamples = 2\nvalue = 10295.7"] ;
418 -> 419 ;
420 [label="mse = 22339.0\nsamples = 13\nvalue = 10737.1"] ;
418 -> 420 ;
421 [label="total_tweets <= 16.5\nmse = 4556.4\nsamples = 2\nvalue = 10192.5"] ;
417 -> 421 ;
422 [label="mse = 0.0\nsamples = 1\nvalue = 10260.0"] ;
421 -> 422 ;
423 [label="mse = -0.0\nsamples = 1\nvalue = 10125.0"] ;
421 -> 423 ;
424 [label="total_vol <= 17883386368.0\nmse = 15739.2\nsamples = 7\nvalue = 11440.4"] ;
416 -> 424 ;
425 [label="total_vol <= 15919967232.0\nmse = 10916.4\nsamples = 2\nvalue = 11647.7"] ;
424 -> 425 ;
426 [label="mse = 0.0\nsamples = 1\nvalue = 11752.1"] ;
425 -> 426 ;
427 [label="mse = -0.0\nsamples = 1\nvalue = 11543.2"] ;
425 -> 427 ;
428 [label="total_tweets <= 31.0\nmse = 1332.3\nsamples = 5\nvalue = 11381.1"] ;
424 -> 428 ;
429 [label="mse = 473.5\nsamples = 3\nvalue = 11361.3"] ;
428 -> 429 ;
430 [label="mse = 22.4\nsamples = 2\nvalue = 11430.8"] ;
428 -> 430 ;
431 [label="date <= 737744.5\nmse = 4990436.6\nsamples = 25\nvalue = 16214.1"] ;
367 -> 431 ;
432 [label="date <= 737733.5\nmse = 1596529.7\nsamples = 13\nvalue = 14563.0"] ;
431 -> 432 ;
433 [label="date <= 737726.0\nmse = 184053.9\nsamples = 7\nvalue = 13314.2"] ;
432 -> 433 ;
434 [label="date <= 737721.5\nmse = 3613.2\nsamples = 4\nvalue = 12996.8"] ;
433 -> 434 ;
435 [label="negative <= 0.0\nmse = 117.3\nsamples = 2\nvalue = 12935.7"] ;
434 -> 435 ;
436 [label="mse = 0.0\nsamples = 1\nvalue = 12951.0"] ;
435 -> 436 ;
437 [label="mse = 0.0\nsamples = 1\nvalue = 12928.1"] ;
435 -> 437 ;
438 [label="date <= 737722.5\nmse = 1343.1\nsamples = 2\nvalue = 13042.6"] ;
434 -> 438 ;
439 [label="mse = 0.0\nsamples = 1\nvalue = 13106.0"] ;
438 -> 439 ;
440 [label="mse = -0.0\nsamples = 1\nvalue = 13021.4"] ;
438 -> 440 ;
441 [label="total_vol <= 22661025792.0\nmse = 14881.8\nsamples = 3\nvalue = 13869.7"] ;
433 -> 441 ;
442 [label="mse = 0.0\nsamples = 1\nvalue = 13990.0"] ;
441 -> 442 ;
443 [label="date <= 737729.5\nmse = 849.0\nsamples = 2\nvalue = 13749.5"] ;
441 -> 443 ;
444 [label="mse = 0.0\nsamples = 1\nvalue = 13778.6"] ;
443 -> 444 ;
445 [label="mse = 0.0\nsamples = 1\nvalue = 13720.4"] ;
443 -> 445 ;
446 [label="date <= 737739.5\nmse = 151611.6\nsamples = 6\nvalue = 15707.6"] ;
432 -> 446 ;
447 [label="negative <= 0.0\nmse = 62680.7\nsamples = 3\nvalue = 15429.2"] ;
446 -> 447 ;
448 [label="mse = 0.0\nsamples = 1\nvalue = 14818.5"] ;
447 -> 448 ;
449 [label="positive <= 0.1\nmse = 600.8\nsamples = 2\nvalue = 15531.0"] ;
447 -> 449 ;
450 [label="mse = 0.0\nsamples = 1\nvalue = 15548.3"] ;
449 -> 450 ;
451 [label="mse = -0.0\nsamples = 1\nvalue = 15496.3"] ;
449 -> 451 ;
452 [label="total_vol <= 26413716480.0\nmse = 15610.5\nsamples = 3\nvalue = 16097.5"] ;
446 -> 452 ;
453 [label="total_tweets <= 30.5\nmse = 3074.0\nsamples = 2\nvalue = 16040.1"] ;
452 -> 453 ;
454 [label="mse = 0.0\nsamples = 1\nvalue = 15984.7"] ;
453 -> 454 ;
455 [label="mse = 0.0\nsamples = 1\nvalue = 16095.6"] ;
453 -> 455 ;
456 [label="mse = -0.0\nsamples = 1\nvalue = 16326.8"] ;
452 -> 456 ;
457 [label="date <= 737757.5\nmse = 902920.8\nsamples = 12\nvalue = 18448.1"] ;
431 -> 457 ;
458 [label="positive <= 0.1\nmse = 535987.7\nsamples = 6\nvalue = 17511.0"] ;
457 -> 458 ;
459 [label="negative <= 0.0\nmse = 40303.7\nsamples = 2\nvalue = 16856.4"] ;
458 -> 459 ;
460 [label="mse = 0.0\nsamples = 1\nvalue = 16714.4"] ;
459 -> 460 ;
461 [label="mse = 0.0\nsamples = 1\nvalue = 17140.3"] ;
459 -> 461 ;
462 [label="negative <= 0.0\nmse = 345253.5\nsamples = 4\nvalue = 18002.0"] ;
458 -> 462 ;
463 [label="negative <= 0.0\nmse = 27033.2\nsamples = 2\nvalue = 18525.1"] ;
462 -> 463 ;
464 [label="mse = 0.0\nsamples = 1\nvalue = 18689.5"] ;
463 -> 464 ;
465 [label="mse = 0.0\nsamples = 1\nvalue = 18360.7"] ;
463 -> 465 ;
466 [label="total_tweets <= 53.5\nmse = 116188.2\nsamples = 2\nvalue = 17478.9"] ;
462 -> 466 ;
467 [label="mse = 0.0\nsamples = 1\nvalue = 17138.0"] ;
466 -> 467 ;
468 [label="mse = -0.0\nsamples = 1\nvalue = 17819.8"] ;
466 -> 468 ;
469 [label="negative <= 0.0\nmse = 114779.6\nsamples = 6\nvalue = 19104.1"] ;
457 -> 469 ;
470 [label="mse = 0.0\nsamples = 1\nvalue = 18711.2"] ;
469 -> 470 ;
471 [label="date <= 737764.0\nmse = 19822.4\nsamples = 5\nvalue = 19366.0"] ;
469 -> 471 ;
472 [label="date <= 737760.5\nmse = 7596.6\nsamples = 2\nvalue = 19522.4"] ;
471 -> 472 ;
473 [label="mse = 0.0\nsamples = 1\nvalue = 19609.5"] ;
472 -> 473 ;
474 [label="mse = 0.0\nsamples = 1\nvalue = 19435.2"] ;
472 -> 474 ;
475 [label="negative <= 0.0\nmse = 7591.8\nsamples = 3\nvalue = 19287.8"] ;
471 -> 475 ;
476 [label="mse = 831.3\nsamples = 2\nvalue = 19239.6"] ;
475 -> 476 ;
477 [label="mse = -0.0\nsamples = 1\nvalue = 19432.4"] ;
475 -> 477 ;
478 [label="date <= 737795.0\nmse = 18913415.5\nsamples = 23\nvalue = 32202.0"] ;
260 -> 478 ;
479 [label="date <= 737783.0\nmse = 7362041.9\nsamples = 7\nvalue = 26678.5"] ;
478 -> 479 ;
480 [label="neutral <= 0.8\nmse = 144220.0\nsamples = 3\nvalue = 23236.5"] ;
479 -> 480 ;
481 [label="date <= 737777.5\nmse = 122771.5\nsamples = 2\nvalue = 23368.3"] ;
480 -> 481 ;
482 [label="mse = 0.0\nsamples = 1\nvalue = 23120.6"] ;
481 -> 482 ;
483 [label="mse = 0.0\nsamples = 1\nvalue = 23863.9"] ;
481 -> 483 ;
484 [label="mse = -0.0\nsamples = 1\nvalue = 22841.0"] ;
480 -> 484 ;
485 [label="date <= 737787.5\nmse = 848225.5\nsamples = 4\nvalue = 28645.3"] ;
479 -> 485 ;
486 [label="mse = 0.0\nsamples = 1\nvalue = 26423.2"] ;
485 -> 486 ;
487 [label="date <= 737790.5\nmse = 29496.6\nsamples = 3\nvalue = 29015.7"] ;
485 -> 487 ;
488 [label="neutral <= 0.8\nmse = 8225.5\nsamples = 2\nvalue = 28948.4"] ;
487 -> 488 ;
489 [label="mse = 0.0\nsamples = 1\nvalue = 29022.4"] ;
488 -> 489 ;
490 [label="mse = 0.0\nsamples = 1\nvalue = 28837.3"] ;
488 -> 490 ;
491 [label="mse = 0.0\nsamples = 1\nvalue = 29352.1"] ;
487 -> 491 ;
492 [label="date <= 737810.5\nmse = 6125572.3\nsamples = 16\nvalue = 34452.4"] ;
478 -> 492 ;
493 [label="neutral <= 0.8\nmse = 2222875.4\nsamples = 5\nvalue = 37713.5"] ;
492 -> 493 ;
494 [label="positive <= 0.1\nmse = 675901.4\nsamples = 2\nvalue = 38872.6"] ;
493 -> 494 ;
495 [label="mse = 0.0\nsamples = 1\nvalue = 38397.9"] ;
494 -> 495 ;
496 [label="mse = -0.0\nsamples = 1\nvalue = 40296.5"] ;
494 -> 496 ;
497 [label="positive <= 0.1\nmse = 106338.7\nsamples = 3\nvalue = 36168.2"] ;
493 -> 497 ;
498 [label="mse = 0.0\nsamples = 1\nvalue = 36595.5"] ;
497 -> 498 ;
499 [label="total_tweets <= 52.0\nmse = 22590.1\nsamples = 2\nvalue = 35954.6"] ;
497 -> 499 ;
500 [label="mse = 0.0\nsamples = 1\nvalue = 36104.9"] ;
499 -> 500 ;
501 [label="mse = 0.0\nsamples = 1\nvalue = 35804.3"] ;
499 -> 501 ;
502 [label="date <= 737822.5\nmse = 2466389.0\nsamples = 11\nvalue = 33311.0"] ;
492 -> 502 ;
503 [label="negative <= 0.0\nmse = 1106285.2\nsamples = 9\nvalue = 32929.2"] ;
502 -> 503 ;
504 [label="mse = 0.0\nsamples = 1\nvalue = 30445.5"] ;
503 -> 504 ;
505 [label="date <= 737818.5\nmse = 377104.6\nsamples = 8\nvalue = 33239.7"] ;
503 -> 505 ;
506 [label="neutral <= 0.9\nmse = 84964.8\nsamples = 4\nvalue = 32774.0"] ;
505 -> 506 ;
507 [label="negative <= 0.1\nmse = 17855.5\nsamples = 2\nvalue = 32505.0"] ;
506 -> 507 ;
508 [label="mse = 0.0\nsamples = 1\nvalue = 32273.5"] ;
507 -> 508 ;
509 [label="mse = -0.0\nsamples = 1\nvalue = 32582.1"] ;
507 -> 509 ;
510 [label="positive <= 0.1\nmse = 7262.3\nsamples = 2\nvalue = 33043.1"] ;
506 -> 510 ;
511 [label="mse = 0.0\nsamples = 1\nvalue = 32957.9"] ;
510 -> 511 ;
512 [label="mse = 0.0\nsamples = 1\nvalue = 33128.3"] ;
510 -> 512 ;
513 [label="neutral <= 0.9\nmse = 235645.9\nsamples = 4\nvalue = 33705.3"] ;
505 -> 513 ;
514 [label="total_vol <= 47244949504.0\nmse = 29105.0\nsamples = 2\nvalue = 33235.4"] ;
513 -> 514 ;
515 [label="mse = 0.0\nsamples = 1\nvalue = 33406.0"] ;
514 -> 515 ;
516 [label="mse = 0.0\nsamples = 1\nvalue = 33064.8"] ;
514 -> 516 ;
517 [label="neutral <= 0.9\nmse = 592.9\nsamples = 2\nvalue = 34175.2"] ;
513 -> 517 ;
518 [label="mse = 0.0\nsamples = 1\nvalue = 34150.8"] ;
517 -> 518 ;
519 [label="mse = -0.0\nsamples = 1\nvalue = 34199.5"] ;
517 -> 519 ;
520 [label="total_vol <= 51881834496.0\nmse = 1589927.2\nsamples = 2\nvalue = 36746.9"] ;
502 -> 520 ;
521 [label="mse = 0.0\nsamples = 1\nvalue = 35486.0"] ;
520 -> 521 ;
522 [label="mse = 0.0\nsamples = 1\nvalue = 38007.8"] ;
520 -> 522 ;
}